{
  "start_date": "1990-01-01",
  "end_date": null,
  "asset_betas": [
    -0.05157471692942644,
    -0.05769635103456364,
    -0.044659336970612855
  ],
  "asset_deltas": [
    0.0033906019353239537,
    0.05010121546820325,
    0.05928552794842985
  ],
  "portfolio_betas": [
    -0.05157471692942644,
    -0.0520119765083648,
    -0.052449236087303175,
    -0.052886495666241554,
    -0.05332375524517993,
    -0.0537610148241183,
    -0.05419827440301691,
    -0.05463553398199505,
    -0.055072793560920444,
    -0.055510053139871784,
    -0.055947312718810156,
    -0.056384572297726546,
    -0.05682183187668689,
    -0.05725909145562527,
    -0.05769635103456113
  ],
  "portfolio_deltas": [
    0.005,
    0.006727074330529622,
    0.010063546725735274,
    0.013400019120940949,
    0.016736491516146618,
    0.020072963911352278,
    0.023409436306254586,
    0.02674590870176361,
    0.030082381096870357,
    0.03341885349217494,
    0.03675532588738061,
    0.040091798282418545,
    0.043428270677791925,
    0.046764743072997605,
    0.05010121546818409
  ],
  "portfolio_weights": [
    [
      1.0,
      1.652256221975316e-18,
      0.0
    ],
    [
      0.9285714285714285,
      0.07142857142857145,
      5.92923478725228e-17
    ],
    [
      0.8571428571428572,
      0.1428571428571427,
      4.796487276030441e-18
    ],
    [
      0.7857142857142857,
      0.21428571428571436,
      0.0
    ],
    [
      0.7142857142857142,
      0.28571428571428586,
      0.0
    ],
    [
      0.6428571428571428,
      0.3571428571428572,
      0.0
    ],
    [
      0.5714285714350656,
      0.4285714285649343,
      0.0
    ],
    [
      0.49999999999999983,
      0.5000000000000001,
      8.467124541525736e-17
    ],
    [
      0.4285714285735461,
      0.571428571426454,
      0.0
    ],
    [
      0.3571428571428571,
      0.642857142857143,
      0.0
    ],
    [
      0.28571428571428537,
      0.7142857142857144,
      2.372017802371245e-16
    ],
    [
      0.21428571428930487,
      0.7857142857106952,
      0.0
    ],
    [
      0.14285714285714288,
      0.8571428571428569,
      2.493576986911792e-16
    ],
    [
      0.07142857142857124,
      0.9285714285714287,
      1.0384455706732554e-16
    ],
    [
      4.1015431526245764e-13,
      0.9999999999995899,
      1.5720931501039814e-18
    ]
  ],
  "vix_theta": 20.0
}