{
  "start_date": "1990-01-01",
  "end_date": null,
  "asset_betas": [
    -0.051740041062075366,
    -0.05803207487274495,
    -0.045065590311197036
  ],
  "asset_deltas": [
    0.016274330475386536,
    0.09008247638326164,
    0.11109582699113071
  ],
  "portfolio_betas": [
    -0.051740041062075366,
    -0.05218947204855177,
    -0.05263890303502817,
    -0.053088334021504556,
    -0.053537765007980964,
    -0.05398719599445736,
    -0.05443662698093376,
    -0.054886057967410154,
    -0.055335488953886555,
    -0.055784919940362956,
    -0.05623435092683935,
    -0.05668378191331575,
    -0.05713321289979215,
    -0.057582643886268554,
    -0.05803207487274494
  ],
  "portfolio_deltas": [
    0.016274330475386536,
    0.021546340897377614,
    0.026818351319368702,
    0.03209036174135977,
    0.03736237216335086,
    0.04263438258534193,
    0.047906393007333,
    0.05317840342932408,
    0.05845041385131515,
    0.06372242427330622,
    0.06899443469529731,
    0.0742664451172884,
    0.07953845553927948,
    0.08481046596127055,
    0.09008247638326163
  ],
  "portfolio_weights": [
    [
      1.0,
      1.1117055036548003e-18,
      0.0
    ],
    [
      0.9285714285714286,
      0.07142857142857144,
      0.0
    ],
    [
      0.8571428571428571,
      0.14285714285714296,
      0.0
    ],
    [
      0.7857142857142856,
      0.21428571428571427,
      0.0
    ],
    [
      0.7142857142857142,
      0.2857142857142858,
      0.0
    ],
    [
      0.6428571428571428,
      0.3571428571428572,
      2.1566370891208316e-17
    ],
    [
      0.5714285714285716,
      0.42857142857142844,
      0.0
    ],
    [
      0.5000000000000001,
      0.4999999999999999,
      1.3700568294121855e-17
    ],
    [
      0.42857142857142877,
      0.5714285714285712,
      0.0
    ],
    [
      0.3571428571428573,
      0.6428571428571427,
      0.0
    ],
    [
      0.2857142857142857,
      0.7142857142857143,
      0.0
    ],
    [
      0.21428571428571427,
      0.7857142857142856,
      9.096090313117321e-17
    ],
    [
      0.142857142857143,
      0.8571428571428571,
      0.0
    ],
    [
      0.0714285714285715,
      0.9285714285714285,
      3.078856231554334e-17
    ],
    [
      1.5070528303196833e-16,
      0.9999999999999998,
      1.596975983700495e-18
    ]
  ],
  "vix_theta": 20.0
}