{
  "start_date": "1990-01-01",
  "end_date": null,
  "asset_betas": [
    -0.05161481046309903,
    -0.05784338063893264,
    -0.04471731910422266
  ],
  "asset_deltas": [
    0.003391717045720343,
    0.050099199167020964,
    0.05929091790787842
  ],
  "portfolio_betas": [
    -0.05161481046310042,
    -0.05205970833281745,
    -0.052504606202503835,
    -0.05294950407220622,
    -0.05339440194190864,
    -0.053839299811611036,
    -0.054284197681313436,
    -0.054729095551015836,
    -0.055173993420718236,
    -0.05561889129042065,
    -0.05606378916012304,
    -0.05650868702982544,
    -0.05695358489952785,
    -0.05739848276923024,
    -0.057843380638928056
  ],
  "portfolio_deltas": [
    0.005,
    0.006727965768790577,
    0.010064214491620435,
    0.013400463214570472,
    0.016736711937520517,
    0.020072960660470564,
    0.02340920938342061,
    0.026745458106370648,
    0.030081706829320695,
    0.033417955552270735,
    0.03675420427522078,
    0.040090452998170836,
    0.04342670172112088,
    0.04676295044407092,
    0.05009919916698662
  ],
  "portfolio_weights": [
    [
      0.9999999999997756,
      2.2436840861304278e-13,
      2.846030702774449e-19
    ],
    [
      0.9285714285688552,
      0.07142857143114467,
      6.938893903907227e-18
    ],
    [
      0.8571428571428571,
      0.14285714285714293,
      0.0
    ],
    [
      0.7857142857142857,
      0.21428571428571422,
      0.0
    ],
    [
      0.7142857142857144,
      0.28571428571428564,
      2.368706206577321e-17
    ],
    [
      0.642857142857143,
      0.3571428571428571,
      0.0
    ],
    [
      0.5714285714285714,
      0.42857142857142866,
      0.0
    ],
    [
      0.5000000000000001,
      0.4999999999999999,
      0.0
    ],
    [
      0.42857142857142855,
      0.5714285714285714,
      0.0
    ],
    [
      0.35714285714285743,
      0.6428571428571427,
      0.0
    ],
    [
      0.28571428571428586,
      0.7142857142857142,
      0.0
    ],
    [
      0.21428571428571438,
      0.7857142857142856,
      1.2459574696179678e-16
    ],
    [
      0.14285714285714285,
      0.8571428571428572,
      0.0
    ],
    [
      0.07142857142857144,
      0.9285714285714286,
      5.09019514003263e-18
    ],
    [
      7.350803612642668e-13,
      0.9999999999992648,
      0.0
    ]
  ],
  "vix_theta": 20.0
}